<?xml version="1.0"?>
<opencv_storage>
<stage2>
  <maxWeakCount>5</maxWeakCount>
  <stageThreshold>-2.3227529525756836e+00</stageThreshold>
  <weakClassifiers>
    <_>
      <internalNodes>
        0 -1 1064957 -2.6145342737436295e-02</internalNodes>
      <leafValues>
        6.3490241765975952e-01 -8.8179785013198853e-01</leafValues></_>
    <_>
      <internalNodes>
        0 -1 70391 -7.6712211593985558e-03</internalNodes>
      <leafValues>
        5.2493232488632202e-01 -7.6583188772201538e-01</leafValues></_>
    <_>
      <internalNodes>
        0 -1 848305 1.4348826371133327e-03</internalNodes>
      <leafValues>
        -5.6490528583526611e-01 6.8797731399536133e-01</leafValues></_>
    <_>
      <internalNodes>
        0 -1 2999 -2.6501718908548355e-02</internalNodes>
      <leafValues>
        -8.2339978218078613e-01 4.9077770113945007e-01</leafValues></_>
    <_>
      <internalNodes>
        0 -1 781637 -3.9420453831553459e-03</internalNodes>
      <leafValues>
        6.2506192922592163e-01 -6.0099554061889648e-01</leafValues></_></weakClassifiers></stage2>
</opencv_storage>
